<?xml version="1.0"?>
<opencv_storage>
<opencv_ml_svm>
  <format>3</format>
  <svmType>C_SVC</svmType>
  <kernel>
    <type>RBF</type>
    <gamma>2.2192000000000001e-01</gamma></kernel>
  <C>1.</C>
  <term_criteria><iterations>100</iterations></term_criteria>
  <var_count>3</var_count>
  <class_count>5</class_count>
  <class_labels type_id="opencv-matrix">
    <rows>5</rows>
    <cols>1</cols>
    <dt>i</dt>
    <data>
      -4 -3 -2 -1 1</data></class_labels>
  <sv_total>445</sv_total>
  <support_vectors>
    <_>
      -1.45687997e+00 2.00000003e-01 1.18409004e+01</_>
    <_>
      2.94497013e-01 3.00000012e-01 4.21342993e+00</_>
    <_>
      2.92041987e-01 4.00000006e-01 4.27117014e+00</_>
    <_>
      2.97796994e-01 5.00000000e-01 4.26427984e+00</_>
    <_>
      -2.97796994e-01 5.00000000e-01 4.26427984e+00</_>
    <_>
      -2.97796994e-01 5.00000000e-01 4.26427984e+00</_>
    <_>
      1.93726003e-01 3.00000012e-01 1.96142006e+00</_>
    <_>
      1.88921005e-01 1.29999995e+00 1.99122000e+00</_>
    <_>
      1.96829006e-01 6.99999988e-01 1.96630001e+00</_>
    <_>
      2.94497013e-01 8.00000012e-01 4.21342993e+00</_>
    <_>
      2.92041987e-01 4.00000006e-01 4.27117014e+00</_>
    <_>
      2.97796994e-01 1.20000005e+00 4.26427984e+00</_>
    <_>
      -2.27474999e-02 8.00000012e-01 1.92099009e-02</_>
    <_>
      -4.42906991e-02 1.39999998e+00 3.28101009e-01</_>
    <_>
      4.13415015e-01 4.00000006e-01 4.23606014e+00</_>
    <_>
      4.38259989e-01 3.00000012e-01 5.10360003e+00</_>
    <_>
      4.05860990e-01 2.00000003e-01 4.63452005e+00</_>
    <_>
      9.61220980e-01 3.00000012e-01 3.65541005e+00</_>
    <_>
      8.61499012e-01 4.00000006e-01 4.48924017e+00</_>
    <_>
      9.76821005e-01 5.00000000e-01 4.69582987e+00</_>
    <_>
      1.26536000e+00 5.00000000e-01 4.72943020e+00</_>
    <_>
      1.08884001e+00 5.00000000e-01 4.51811981e+00</_>
    <_>
      1.12980998e+00 2.00000003e-01 4.97189999e+00</_>
    <_>
      6.51597023e-01 3.00000012e-01 1.20508003e+01</_>
    <_>
      6.34755015e-01 5.00000000e-01 1.18052998e+01</_>
    <_>
      7.65233994e-01 5.00000000e-01 1.89085999e+01</_>
    <_>
      -1.97267998e-02 6.99999988e-01 9.68152005e-03</_>
    <_>
      6.53463006e-01 4.00000006e-01 1.20791998e+01</_>
    <_>
      6.37642980e-01 4.00000006e-01 1.15516005e+01</_>
    <_>
      7.80385971e-01 3.00000012e-01 1.91947994e+01</_>
    <_>
      7.71100998e-01 5.00000000e-01 5.87122011e+00</_>
    <_>
      7.53122985e-01 4.00000006e-01 5.88329983e+00</_>
    <_>
      6.39490008e-01 4.00000006e-01 4.81259012e+00</_>
    <_>
      2.23695993e-01 4.00000006e-01 5.48173010e-01</_>
    <_>
      2.23905995e-01 6.99999988e-01 5.41680992e-01</_>
    <_>
      2.23581001e-01 8.99999976e-01 5.42770982e-01</_>
    <_>
      2.60966003e-01 1.89999998e+00 1.02305996e+00</_>
    <_>
      2.59966999e-01 2.09999990e+00 1.03118002e+00</_>
    <_>
      2.60087013e-01 1.00000001e-01 1.01689005e+00</_>
    <_>
      5.65748990e-01 1.00000001e-01 4.19577980e+00</_>
    <_>
      5.86022973e-01 5.00000000e-01 3.88128996e+00</_>
    <_>
      5.86618006e-01 4.00000006e-01 3.87821007e+00</_>
    <_>
      1.83262002e+00 3.00000012e-01 1.23679996e+00</_>
    <_>
      1.83262002e+00 1.00000001e-01 1.23679996e+00</_>
    <_>
      1.83262002e+00 5.00000000e-01 1.23679996e+00</_>
    <_>
      1.83262002e+00 6.99999988e-01 1.23679996e+00</_>
    <_>
      1.84469998e+00 4.00000006e-01 2.33229995e+00</_>
    <_>
      3.65337992e+00 3.00000012e-01 1.29259002e+00</_>
    <_>
      4.83262014e+00 3.00000012e-01 1.23679996e+00</_>
    <_>
      1.45337999e+00 4.00000006e-01 1.29259002e+00</_>
    <_>
      2.84470010e+00 4.00000006e-01 2.33229995e+00</_>
    <_>
      6.61019027e-01 4.00000006e-01 5.07532978e+00</_>
    <_>
      6.66456997e-01 3.00000012e-01 5.16626978e+00</_>
    <_>
      6.61715984e-01 4.00000006e-01 5.33427000e+00</_>
    <_>
      5.41099012e-01 4.00000006e-01 2.61344004e+00</_>
    <_>
      6.01665974e-01 4.00000006e-01 2.98308992e+00</_>
    <_>
      4.84360993e-01 4.00000006e-01 2.99224997e+00</_>
    <_>
      1.96940994e+00 6.99999988e-01 2.14165998e+00</_>
    <_>
      1.95164001e+00 4.00000006e-01 2.51395988e+00</_>
    <_>
      1.92376995e+00 1.00000001e-01 5.22832012e+00</_>
    <_>
      2.11799002e+00 1.10000002e+00 4.05971003e+00</_>
    <_>
      1.06078994e+00 1.00000001e-01 5.70717001e+00</_>
    <_>
      1.06234002e+00 3.00000012e-01 5.51564980e+00</_>
    <_>
      7.80698001e-01 3.00000012e-01 5.25870991e+00</_>
    <_>
      3.40219998e+00 8.99999976e-01 1.34852004e+00</_>
    <_>
      1.96940994e+00 3.00000012e-01 2.14165998e+00</_>
    <_>
      2.11799002e+00 1.29999995e+00 4.05971003e+00</_>
    <_>
      6.05233014e-01 3.00000012e-01 5.34129000e+00</_>
    <_>
      6.03214979e-01 5.00000000e-01 4.97842979e+00</_>
    <_>
      7.31357992e-01 5.00000007e-02 3.08835006e+00</_>
    <_>
      7.19208002e-01 3.00000012e-01 2.88845992e+00</_>
    <_>
      7.50937998e-01 3.00000012e-01 3.11252999e+00</_>
    <_>
      8.35843980e-01 3.00000012e-01 2.95267010e+00</_>
    <_>
      8.28864992e-01 5.00000007e-02 2.65277004e+00</_>
    <_>
      8.67905021e-01 4.00000006e-01 2.95056009e+00</_>
    <_>
      1.33971000e+00 4.00000006e-01 6.12024009e-01</_>
    <_>
      4.38100010e-01 2.00000003e-01 1.81184006e+00</_>
    <_>
      4.36583996e-01 1.00000001e-01 1.85433996e+00</_>
    <_>
      4.35485989e-01 2.00000003e-01 1.85757005e+00</_>
    <_>
      4.64807004e-01 2.00000003e-01 2.07830000e+00</_>
    <_>
      4.67274010e-01 2.00000003e-01 2.13580990e+00</_>
    <_>
      4.66973007e-01 2.00000003e-01 2.17384005e+00</_>
    <_>
      4.38100010e-01 1.00000001e-01 1.41183996e+00</_>
    <_>
      4.36583996e-01 1.00000001e-01 1.45433998e+00</_>
    <_>
      4.35485989e-01 2.00000003e-01 1.15757000e+00</_>
    <_>
      4.38100010e-01 1.00000001e-01 4.11839992e-01</_>
    <_>
      4.36583996e-01 1.00000001e-01 4.54340011e-01</_>
    <_>
      4.35485989e-01 2.00000003e-01 1.57570004e-01</_>
    <_>
      3.38099986e-01 1.00000001e-01 1.41183996e+00</_>
    <_>
      2.36583993e-01 1.00000001e-01 1.45433998e+00</_>
    <_>
      3.35485995e-01 2.00000003e-01 1.15757000e+00</_>
    <_>
      2.38100007e-01 1.00000001e-01 4.11839992e-01</_>
    <_>
      1.36583999e-01 1.00000001e-01 4.54340011e-01</_>
    <_>
      3.35485995e-01 2.00000003e-01 1.57570004e-01</_>
    <_>
      4.38100010e-01 3.00000012e-01 1.41183996e+00</_>
    <_>
      4.36583996e-01 4.00000006e-01 1.45433998e+00</_>
    <_>
      4.35485989e-01 2.50000000e-01 1.15757000e+00</_>
    <_>
      4.38100010e-01 3.49999994e-01 4.11839992e-01</_>
    <_>
      4.36583996e-01 5.00000000e-01 4.54340011e-01</_>
    <_>
      4.35485989e-01 2.50000000e-01 1.57570004e-01</_>
    <_>
      1.51025999e+00 4.00000006e-01 1.16734004e+00</_>
    <_>
      1.73155999e+00 4.00000006e-01 2.56697989e+00</_>
    <_>
      1.73155999e+00 3.00000012e-01 2.56697989e+00</_>
    <_>
      1.73155999e+00 2.00000003e-01 2.56697989e+00</_>
    <_>
      1.73155999e+00 5.00000007e-02 5.66980004e-01</_>
    <_>
      1.73155999e+00 4.00000006e-01 1.56698000e+00</_>
    <_>
      1.73155999e+00 3.00000012e-01 3.56697989e+00</_>
    <_>
      1.73155999e+00 2.00000003e-01 6.56697989e+00</_>
    <_>
      1.63155997e+00 5.00000007e-02 4.56697989e+00</_>
    <_>
      1.63155997e+00 4.00000006e-01 2.56697989e+00</_>
    <_>
      1.63155997e+00 3.00000012e-01 2.56697989e+00</_>
    <_>
      1.63155997e+00 2.00000003e-01 2.56697989e+00</_>
    <_>
      1.63155997e+00 4.00000006e-01 1.56698000e+00</_>
    <_>
      1.63155997e+00 3.00000012e-01 3.56697989e+00</_>
    <_>
      1.63155997e+00 2.00000003e-01 6.56697989e+00</_>
    <_>
      1.63155997e+00 5.00000007e-02 4.56697989e+00</_>
    <_>
      1.63155997e+00 5.50000012e-01 2.56697989e+00</_>
    <_>
      1.63155997e+00 5.00000000e-01 2.56697989e+00</_>
    <_>
      1.63155997e+00 6.00000024e-01 2.56697989e+00</_>
    <_>
      1.63155997e+00 5.50000012e-01 5.66980004e-01</_>
    <_>
      1.63155997e+00 6.00000024e-01 1.56698000e+00</_>
    <_>
      1.01242006e+00 4.00000006e-01 2.67401004e+00</_>
    <_>
      1.09592998e+00 3.00000012e-01 2.93422008e+00</_>
    <_>
      1.16526997e+00 3.00000012e-01 8.76766026e-01</_>
    <_>
      1.69553006e+00 3.00000012e-01 1.73140001e+00</_>
    <_>
      8.67497027e-01 3.00000012e-01 1.73264003e+00</_>
    <_>
      9.53574002e-01 3.00000012e-01 2.13066006e+00</_>
    <_>
      1.69553006e+00 5.50000012e-01 1.73140001e+00</_>
    <_>
      4.98768002e-01 2.00000003e-01 1.70827997e+00</_>
    <_>
      5.23014009e-01 2.00000003e-01 1.70440996e+00</_>
    <_>
      4.95986998e-01 3.00000012e-01 1.72698998e+00</_>
    <_>
      4.29318994e-01 3.00000012e-01 2.41822004e+00</_>
    <_>
      4.82537001e-01 1.00000001e-01 2.07816005e+00</_>
    <_>
      4.24234003e-01 1.00000001e-01 2.37811995e+00</_>
    <_>
      4.98768002e-01 2.00000003e-01 7.08280027e-01</_>
    <_>
      5.23014009e-01 2.00000003e-01 1.30440998e+00</_>
    <_>
      4.95986998e-01 2.50000000e-01 1.22698998e+00</_>
    <_>
      4.29318994e-01 3.00000012e-01 1.41822004e+00</_>
    <_>
      4.82537001e-01 3.49999994e-01 1.07816005e+00</_>
    <_>
      4.24234003e-01 4.00000006e-01 1.37811995e+00</_>
    <_>
      4.82537001e-01 3.49999994e-01 2.07816005e+00</_>
    <_>
      4.24234003e-01 4.00000006e-01 2.37811995e+00</_>
    <_>
      6.59868002e-01 1.00000001e-01 2.40350008e+00</_>
    <_>
      6.98454976e-01 2.00000003e-01 2.55877995e+00</_>
    <_>
      6.38921022e-01 3.00000012e-01 2.18779993e+00</_>
    <_>
      9.25323009e-01 3.00000012e-01 2.14139009e+00</_>
    <_>
      1.40979004e+00 5.50000012e-01 5.74138999e-01</_>
    <_>
      1.49550998e+00 6.49999976e-01 9.78067994e-01</_>
    <_>
      4.16489005e-01 1.50000006e-01 1.79033005e+00</_>
    <_>
      5.06195009e-01 1.50000006e-01 1.31693995e+00</_>
    <_>
      5.06195009e-01 5.00000007e-02 1.11694002e+00</_>
    <_>
      5.06195009e-01 2.00000003e-01 1.21694005e+00</_>
    <_>
      2.90778995e-01 1.17918000e-01 4.44807005e+00</_>
    <_>
      3.59081000e-01 1.90738007e-01 3.54584002e+00</_>
    <_>
      2.72599012e-01 1.53643996e-01 4.53608990e+00</_>
    <_>
      2.21117005e-01 2.29783997e-01 1.80613005e+00</_>
    <_>
      2.82507986e-01 2.42544994e-01 1.67227995e+00</_>
    <_>
      2.11057007e-01 1.88665003e-01 1.82846999e+00</_>
    <_>
      4.11240011e-01 3.31912011e-01 8.92458022e-01</_>
    <_>
      3.78363013e-01 4.61077988e-01 1.26214004e+00</_>
    <_>
      4.17219996e-01 3.32385004e-01 9.64302003e-01</_>
    <_>
      7.92733014e-01 3.28482985e-01 4.38207000e-01</_>
    <_>
      7.54208982e-01 1.45373002e-01 2.53226012e-01</_>
    <_>
      4.70034003e-01 2.43329003e-01 9.47378993e-01</_>
    <_>
      4.70034003e-01 2.43329003e-01 1.94737899e+00</_>
    <_>
      4.32357013e-01 1.79475993e-01 1.83298004e+00</_>
    <_>
      4.32357013e-01 1.99476004e-01 8.32979977e-01</_>
    <_>
      4.32357013e-01 2.29476005e-01 1.83298004e+00</_>
    <_>
      4.32357013e-01 3.59476000e-01 1.83298004e+00</_>
    <_>
      4.70034003e-01 2.53329009e-01 9.47378993e-01</_>
    <_>
      4.70034003e-01 3.03328991e-01 9.47378993e-01</_>
    <_>
      4.70034003e-01 3.53329003e-01 9.47378993e-01</_>
    <_>
      4.32357013e-01 1.99476004e-01 2.23298001e+00</_>
    <_>
      4.32357013e-01 1.29475996e-01 2.23298001e+00</_>
    <_>
      4.32357013e-01 9.47600007e-02 2.23298001e+00</_>
    <_>
      4.70034003e-01 2.43329003e-01 2.34737897e+00</_>
    <_>
      4.70034003e-01 2.43329003e-01 2.94737911e+00</_>
    <_>
      5.70034027e-01 2.43329003e-01 9.47378993e-01</_>
    <_>
      5.70034027e-01 2.43329003e-01 1.94737899e+00</_>
    <_>
      5.70034027e-01 2.43329003e-01 2.24737906e+00</_>
    <_>
      5.70034027e-01 4.33290005e-02 1.94737899e+00</_>
    <_>
      5.70034027e-01 1.83329001e-01 2.24737906e+00</_>
    <_>
      5.32356977e-01 1.99476004e-01 1.83298004e+00</_>
    <_>
      5.32356977e-01 1.99476004e-01 8.32979977e-01</_>
    <_>
      5.32356977e-01 1.99476004e-01 2.13298011e+00</_>
    <_>
      5.32356977e-01 9.94760022e-02 1.83298004e+00</_>
    <_>
      5.32356977e-01 1.99476004e-01 8.32979977e-01</_>
    <_>
      5.32356977e-01 2.39475995e-01 2.13298011e+00</_>
    <_>
      5.70034027e-01 2.83329010e-01 9.47378993e-01</_>
    <_>
      5.70034027e-01 3.23329002e-01 1.94737899e+00</_>
    <_>
      5.70034027e-01 3.33328992e-01 2.24737906e+00</_>
    <_>
      5.70034027e-01 2.43329003e-01 2.84737897e+00</_>
    <_>
      5.70034027e-01 1.43328995e-01 2.94737911e+00</_>
    <_>
      6.70033991e-01 2.43329003e-01 9.47378993e-01</_>
    <_>
      6.70033991e-01 2.83329010e-01 1.94737899e+00</_>
    <_>
      6.70033991e-01 2.73328990e-01 2.24737906e+00</_>
    <_>
      6.70033991e-01 4.33290005e-02 1.94737899e+00</_>
    <_>
      6.70033991e-01 1.83329001e-01 2.24737906e+00</_>
    <_>
      6.70033991e-01 2.43329003e-01 9.47378993e-01</_>
    <_>
      6.70033991e-01 3.83329004e-01 1.94737899e+00</_>
    <_>
      6.70033991e-01 3.23329002e-01 2.24737906e+00</_>
    <_>
      6.70033991e-01 3.43329012e-01 9.47378993e-01</_>
    <_>
      6.70033991e-01 3.83329004e-01 2.24737906e+00</_>
    <_>
      6.70033991e-01 2.43329003e-01 2.94737911e+00</_>
    <_>
      6.70033991e-01 2.83329010e-01 3.94737911e+00</_>
    <_>
      6.70033991e-01 4.33290005e-02 2.94737911e+00</_>
    <_>
      6.70033991e-01 1.83329001e-01 3.24737906e+00</_>
    <_>
      7.70034015e-01 2.43329003e-01 9.47378993e-01</_>
    <_>
      7.70034015e-01 2.83329010e-01 1.94737899e+00</_>
    <_>
      7.70034015e-01 2.73328990e-01 2.24737906e+00</_>
    <_>
      7.70034015e-01 4.33290005e-02 1.94737899e+00</_>
    <_>
      7.70034015e-01 1.83329001e-01 2.24737906e+00</_>
    <_>
      7.70034015e-01 2.43329003e-01 9.47378993e-01</_>
    <_>
      7.70034015e-01 3.83329004e-01 1.94737899e+00</_>
    <_>
      7.70034015e-01 3.23329002e-01 2.24737906e+00</_>
    <_>
      7.70034015e-01 3.43329012e-01 9.47378993e-01</_>
    <_>
      7.70034015e-01 3.83329004e-01 2.24737906e+00</_>
    <_>
      7.70034015e-01 2.43329003e-01 2.94737911e+00</_>
    <_>
      7.70034015e-01 2.83329010e-01 3.94737911e+00</_>
    <_>
      7.70034015e-01 2.73328990e-01 3.74737906e+00</_>
    <_>
      7.70034015e-01 4.33290005e-02 2.94737911e+00</_>
    <_>
      7.70034015e-01 1.83329001e-01 3.24737906e+00</_>
    <_>
      8.70033979e-01 3.13329011e-01 9.47378993e-01</_>
    <_>
      8.70033979e-01 2.83329010e-01 1.94737899e+00</_>
    <_>
      8.70033979e-01 2.73328990e-01 2.24737906e+00</_>
    <_>
      8.70033979e-01 2.83329010e-01 2.24737906e+00</_>
    <_>
      8.70033979e-01 2.43329003e-01 9.47378993e-01</_>
    <_>
      8.70033979e-01 3.63328993e-01 9.47378993e-01</_>
    <_>
      8.70033979e-01 3.83329004e-01 1.94737899e+00</_>
    <_>
      8.70033979e-01 3.73329014e-01 2.24737906e+00</_>
    <_>
      8.70033979e-01 3.63328993e-01 1.94737899e+00</_>
    <_>
      8.70033979e-01 3.83329004e-01 2.24737906e+00</_>
    <_>
      8.70033979e-01 3.13329011e-01 3.14737892e+00</_>
    <_>
      8.70033979e-01 2.83329010e-01 3.94737911e+00</_>
    <_>
      8.70033979e-01 2.73328990e-01 3.24737906e+00</_>
    <_>
      8.70033979e-01 2.83329010e-01 3.24737906e+00</_>
    <_>
      8.70033979e-01 3.63328993e-01 9.47378993e-01</_>
    <_>
      8.70033979e-01 3.73329014e-01 2.47379005e-01</_>
    <_>
      8.70033979e-01 4.53328997e-01 5.94737911e+00</_>
    <_>
      8.70033979e-01 3.83329004e-01 2.24737906e+00</_>
    <_>
      8.70033979e-01 3.93328995e-01 4.94737911e+00</_>
    <_>
      8.70033979e-01 3.85329008e-01 5.47379017e-01</_>
    <_>
      8.70033979e-01 3.93328995e-01 3.47378999e-01</_>
    <_>
      8.70033979e-01 4.13329005e-01 4.47378993e-01</_>
    <_>
      7.70034015e-01 3.63328993e-01 9.47378993e-01</_>
    <_>
      7.70034015e-01 3.73329014e-01 2.47379005e-01</_>
    <_>
      7.70034015e-01 4.53328997e-01 5.94737911e+00</_>
    <_>
      7.70034015e-01 3.83329004e-01 2.24737906e+00</_>
    <_>
      7.70034015e-01 3.93328995e-01 4.94737911e+00</_>
    <_>
      7.70034015e-01 3.85329008e-01 5.47379017e-01</_>
    <_>
      7.70034015e-01 3.93328995e-01 3.47378999e-01</_>
    <_>
      6.70033991e-01 2.63328999e-01 9.47378993e-01</_>
    <_>
      6.70033991e-01 3.83329004e-01 1.94737899e+00</_>
    <_>
      6.70033991e-01 2.73328990e-01 2.47379005e-01</_>
    <_>
      6.70033991e-01 3.03328991e-01 1.94737899e+00</_>
    <_>
      6.70033991e-01 4.53328997e-01 5.94737911e+00</_>
    <_>
      6.70033991e-01 2.63328999e-01 2.24737906e+00</_>
    <_>
      6.70033991e-01 2.93329000e-01 4.94737911e+00</_>
    <_>
      6.70033991e-01 2.55329013e-01 5.47379017e-01</_>
    <_>
      6.70033991e-01 2.93329000e-01 3.47378999e-01</_>
    <_>
      6.70033991e-01 3.23329002e-01 5.47379017e-01</_>
    <_>
      5.70034027e-01 2.23328993e-01 9.47378993e-01</_>
    <_>
      5.70034027e-01 3.83329004e-01 1.94737899e+00</_>
    <_>
      5.70034027e-01 2.13329002e-01 2.47379005e-01</_>
    <_>
      5.70034027e-01 3.43329012e-01 1.94737899e+00</_>
    <_>
      5.70034027e-01 4.53328997e-01 5.94737911e+00</_>
    <_>
      5.70034027e-01 2.83329010e-01 2.24737906e+00</_>
    <_>
      5.70034027e-01 2.93329000e-01 4.94737911e+00</_>
    <_>
      5.70034027e-01 2.85329014e-01 5.47379017e-01</_>
    <_>
      5.70034027e-01 2.93329000e-01 3.47378999e-01</_>
    <_>
      5.70034027e-01 3.23329002e-01 5.47379017e-01</_>
    <_>
      4.70034003e-01 2.13329002e-01 9.47378993e-01</_>
    <_>
      4.70034003e-01 2.83329010e-01 1.94737899e+00</_>
    <_>
      4.70034003e-01 2.73328990e-01 2.47379005e-01</_>
    <_>
      4.70034003e-01 3.43329012e-01 1.94737899e+00</_>
    <_>
      4.70034003e-01 2.53329009e-01 5.94737911e+00</_>
    <_>
      4.70034003e-01 2.13329002e-01 2.24737906e+00</_>
    <_>
      4.70034003e-01 2.33328998e-01 4.94737911e+00</_>
    <_>
      4.70034003e-01 2.25328997e-01 5.47379017e-01</_>
    <_>
      4.70034003e-01 2.43329003e-01 3.47378999e-01</_>
    <_>
      4.70034003e-01 2.23328993e-01 5.47379017e-01</_>
    <_>
      4.70034003e-01 4.13329005e-01 4.47378993e-01</_>
    <_>
      3.40034008e-01 2.83329010e-01 1.94737899e+00</_>
    <_>
      3.40034008e-01 2.73328990e-01 2.47379005e-01</_>
    <_>
      3.40034008e-01 3.43329012e-01 1.94737899e+00</_>
    <_>
      3.40034008e-01 2.53329009e-01 5.94737911e+00</_>
    <_>
      3.40034008e-01 2.13329002e-01 2.24737906e+00</_>
    <_>
      3.40034008e-01 2.33328998e-01 4.94737911e+00</_>
    <_>
      3.40034008e-01 2.25328997e-01 5.47379017e-01</_>
    <_>
      3.40034008e-01 2.43329003e-01 3.47378999e-01</_>
    <_>
      3.40034008e-01 2.23328993e-01 5.47379017e-01</_>
    <_>
      3.40034008e-01 4.13329005e-01 4.47378993e-01</_>
    <_>
      3.40034008e-01 1.83329001e-01 1.44737899e+00</_>
    <_>
      3.40034008e-01 7.33290017e-02 2.47379005e-01</_>
    <_>
      3.40034008e-01 1.43328995e-01 1.74737895e+00</_>
    <_>
      3.40034008e-01 1.53329000e-01 1.94737899e+00</_>
    <_>
      3.40034008e-01 1.13329001e-01 1.24737895e+00</_>
    <_>
      3.40034008e-01 3.33289988e-02 1.94737899e+00</_>
    <_>
      3.40034008e-01 1.25329003e-01 5.47379017e-01</_>
    <_>
      3.40034008e-01 1.43328995e-01 3.47378999e-01</_>
    <_>
      3.40034008e-01 2.33290009e-02 5.47379017e-01</_>
    <_>
      3.40034008e-01 1.13329001e-01 4.47378993e-01</_>
    <_>
      2.40033999e-01 2.83329010e-01 1.94737899e+00</_>
    <_>
      3.20033997e-01 2.73328990e-01 2.47379005e-01</_>
    <_>
      2.70033985e-01 3.43329012e-01 1.94737899e+00</_>
    <_>
      3.20033997e-01 2.53329009e-01 5.94737911e+00</_>
    <_>
      2.70033985e-01 2.13329002e-01 2.24737906e+00</_>
    <_>
      2.70033985e-01 2.33328998e-01 4.94737911e+00</_>
    <_>
      2.70033985e-01 2.25328997e-01 5.47379017e-01</_>
    <_>
      3.30033988e-01 2.43329003e-01 3.47378999e-01</_>
    <_>
      3.50033998e-01 2.23328993e-01 5.47379017e-01</_>
    <_>
      2.70033985e-01 4.13329005e-01 4.47378993e-01</_>
    <_>
      3.90033990e-01 1.83329001e-01 1.44737899e+00</_>
    <_>
      3.10034007e-01 7.33290017e-02 2.47379005e-01</_>
    <_>
      3.00033987e-01 1.43328995e-01 1.74737895e+00</_>
    <_>
      2.70033985e-01 1.53329000e-01 1.94737899e+00</_>
    <_>
      2.10033998e-01 1.13329001e-01 1.24737895e+00</_>
    <_>
      2.30033994e-01 3.33289988e-02 1.94737899e+00</_>
    <_>
      2.60033995e-01 1.25329003e-01 5.47379017e-01</_>
    <_>
      2.70033985e-01 1.43328995e-01 3.47378999e-01</_>
    <_>
      2.70033985e-01 2.33290009e-02 5.47379017e-01</_>
    <_>
      2.70033985e-01 1.13329001e-01 4.47378993e-01</_>
    <_>
      3.93137008e-01 1.62235007e-01 1.55596995e+00</_>
    <_>
      3.80522013e-01 2.82213002e-01 1.94424999e+00</_>
    <_>
      3.93137008e-01 1.62235007e-01 1.55596995e+00</_>
    <_>
      3.93137008e-01 1.62235007e-01 1.55596995e+00</_>
    <_>
      3.80522013e-01 2.82213002e-01 1.94424999e+00</_>
    <_>
      3.93137008e-01 1.62235007e-01 1.75597000e+00</_>
    <_>
      3.93137008e-01 1.62235007e-01 1.55596995e+00</_>
    <_>
      3.93137008e-01 1.62235007e-01 1.95597005e+00</_>
    <_>
      3.93137008e-01 1.62235007e-01 1.85597003e+00</_>
    <_>
      3.80522013e-01 2.82213002e-01 1.94424999e+00</_>
    <_>
      1.70535997e-01 7.04727024e-02 1.48269999e+00</_>
    <_>
      2.96508998e-01 1.33003995e-01 1.99318004e+00</_>
    <_>
      2.05983996e-01 5.78094013e-02 1.44832003e+00</_>
    <_>
      1.70535997e-01 7.04727024e-02 1.48269999e+00</_>
    <_>
      2.96508998e-01 1.33003995e-01 1.99318004e+00</_>
    <_>
      1.18002999e+00 4.74783003e-01 5.96747994e-01</_>
    <_>
      1.36056995e+00 4.59446996e-01 7.99574971e-01</_>
    <_>
      3.21292996e-01 1.95371002e-01 7.39516973e-01</_>
    <_>
      3.42691004e-01 1.71309993e-01 7.03171015e-01</_>
    <_>
      3.31766009e-01 1.87824994e-01 7.16014028e-01</_>
    <_>
      2.90291995e-01 1.16072997e-01 6.81169987e-01</_>
    <_>
      2.91602999e-01 9.88197029e-02 6.25880003e-01</_>
    <_>
      3.38849992e-01 2.29989007e-01 6.41736984e-01</_>
    <_>
      3.60581011e-01 1.98379993e-01 5.38865983e-01</_>
    <_>
      3.47286999e-01 2.67343998e-01 6.05539978e-01</_>
    <_>
      3.52495015e-01 2.18411997e-01 8.15541983e-01</_>
    <_>
      3.46902996e-01 2.70379990e-01 7.96949029e-01</_>
    <_>
      3.49923998e-01 2.42469996e-01 8.16635013e-01</_>
    <_>
      3.52495015e-01 2.18411997e-01 8.15541983e-01</_>
    <_>
      3.46902996e-01 2.70379990e-01 7.96949029e-01</_>
    <_>
      3.49923998e-01 2.42469996e-01 8.16635013e-01</_>
    <_>
      3.03512990e-01 1.82586998e-01 7.59567976e-01</_>
    <_>
      3.04897994e-01 1.91878006e-01 7.65264988e-01</_>
    <_>
      3.02872002e-01 1.97208002e-01 7.35812008e-01</_>
    <_>
      2.88298994e-01 1.13181002e-01 7.22086012e-01</_>
    <_>
      2.95749009e-01 1.10388003e-01 5.83100975e-01</_>
    <_>
      3.42453003e-01 1.99584007e-01 6.92635000e-01</_>
    <_>
      3.56353998e-01 1.85836002e-01 6.73977971e-01</_>
    <_>
      3.35233003e-01 1.94518000e-01 6.97425008e-01</_>
    <_>
      3.31146985e-01 1.81213006e-01 6.69157028e-01</_>
    <_>
      3.49494010e-01 1.62114993e-01 6.52279973e-01</_>
    <_>
      3.11935008e-01 1.71988994e-01 7.44175017e-01</_>
    <_>
      3.31146985e-01 1.81213006e-01 6.69157028e-01</_>
    <_>
      3.49494010e-01 1.62114993e-01 6.52279973e-01</_>
    <_>
      3.11935008e-01 1.71988994e-01 7.44175017e-01</_>
    <_>
      3.21292996e-01 1.95371002e-01 7.39516973e-01</_>
    <_>
      3.42691004e-01 1.71309993e-01 7.03171015e-01</_>
    <_>
      3.31766009e-01 1.87824994e-01 7.16014028e-01</_>
    <_>
      5.67322016e-01 5.35775013e-02 3.02529991e-01</_>
    <_>
      5.71263015e-01 1.00753002e-01 3.23197007e-01</_>
    <_>
      5.67322016e-01 5.35775013e-02 3.02529991e-01</_>
    <_>
      5.71263015e-01 1.00753002e-01 3.23197007e-01</_>
    <_>
      5.67322016e-01 5.35775013e-02 3.02529991e-01</_>
    <_>
      5.71263015e-01 1.00753002e-01 3.23197007e-01</_>
    <_>
      1.11273003e+00 3.75941992e-01 3.80433989e+00</_>
    <_>
      4.30810004e-01 1.73614994e-01 4.26122993e-01</_>
    <_>
      7.18370974e-01 2.50523001e-01 5.90924025e-01</_>
    <_>
      6.11077011e-01 2.48973995e-01 7.87582994e-01</_>
    <_>
      5.53175986e-01 2.91343004e-01 1.52522996e-01</_>
    <_>
      5.84393978e-01 5.14669001e-01 1.51972994e-01</_>
    <_>
      3.01768994e+00 8.64735031e+00 9.01259995e+00</_>
    <_>
      2.32756996e+00 3.23990989e+00 7.21384001e+00</_>
    <_>
      3.15139008e+00 8.25516987e+00 9.87047958e+00</_>
    <_>
      2.10753002e+01 5.21360993e-01 1.95914001e+01</_>
    <_>
      -3.01392007e+00 7.18394995e-01 2.74604011e+00</_>
    <_>
      -3.01392007e+00 7.18394995e-01 2.74604011e+00</_>
    <_>
      2.41706991e+00 2.59724998e+00 8.09990978e+00</_>
    <_>
      4.14424992e+00 3.60867009e-02 1.26662998e+01</_>
    <_>
      -1.42908001e+01 6.95540011e-02 2.07814999e+01</_>
    <_>
      1.90539002e+00 3.62097001e+00 2.19992995e+00</_>
    <_>
      2.47296000e+00 6.74391985e+00 2.27600002e+00</_>
    <_>
      2.09428996e-01 6.39786005e-01 1.85716999e+00</_>
    <_>
      2.06596002e-01 6.20927989e-01 1.78374004e+00</_>
    <_>
      2.01032996e-01 5.07161021e-01 1.79277003e+00</_>
    <_>
      9.36392024e-02 2.03621998e-01 6.29491985e-01</_>
    <_>
      8.56944025e-02 1.74734995e-01 5.92866004e-01</_>
    <_>
      9.56981033e-02 2.19440997e-01 6.15734994e-01</_>
    <_>
      1.64723003e+00 7.89965987e-01 2.84261990e+00</_>
    <_>
      1.57808006e+00 9.02336001e-01 2.71652007e+00</_>
    <_>
      1.68741000e+00 9.10889983e-01 2.86166000e+00</_>
    <_>
      4.69597012e-01 2.50659990e+00 1.61485004e+00</_>
    <_>
      4.59289998e-01 2.03325009e+00 1.49796999e+00</_>
    <_>
      4.61650997e-01 2.13311005e+00 1.51961994e+00</_>
    <_>
      4.69597012e-01 2.50659990e+00 1.61485004e+00</_>
    <_>
      3.22981000e-01 4.18884009e-02 1.47818995e+00</_>
    <_>
      3.22981000e-01 4.18884009e-02 1.27819002e+00</_>
    <_>
      3.42981011e-01 4.18884009e-02 1.47818995e+00</_>
    <_>
      3.32980990e-01 4.18884009e-02 1.27819002e+00</_>
    <_>
      2.92980999e-01 4.18884009e-02 1.47818995e+00</_>
    <_>
      2.82981008e-01 4.18884009e-02 1.27819002e+00</_>
    <_>
      5.14542997e-01 2.06646007e-02 2.71076989e+00</_>
    <_>
      4.09604013e-01 1.41444996e-01 1.97174001e+00</_>
    <_>
      4.09604013e-01 1.41444996e-01 1.77173996e+00</_>
    <_>
      3.89604002e-01 1.41444996e-01 1.77173996e+00</_>
    <_>
      3.35473001e-01 2.63922006e-01 9.73600984e-01</_>
    <_>
      3.35473001e-01 2.33922005e-01 9.73600984e-01</_>
    <_>
      3.35473001e-01 2.13921994e-01 9.73600984e-01</_>
    <_>
      3.35473001e-01 2.13921994e-01 1.97360098e+00</_>
    <_>
      3.35473001e-01 2.13921994e-01 1.57360101e+00</_>
    <_>
      5.29877007e-01 3.27067003e-02 2.32784009e+00</_>
    <_>
      5.29877007e-01 1.32706702e-01 2.32784009e+00</_>
    <_>
      5.29877007e-01 1.62706703e-01 2.32784009e+00</_>
    <_>
      5.29877007e-01 3.27067003e-02 2.12784004e+00</_>
    <_>
      5.29877007e-01 1.32706702e-01 2.12784004e+00</_>
    <_>
      3.95819992e-01 2.86729008e-01 5.90830982e-01</_>
    <_>
      3.95819992e-01 2.36728996e-01 5.90830982e-01</_>
    <_>
      3.95819992e-01 2.36728996e-01 1.59083104e+00</_>
    <_>
      6.71634018e-01 3.29479992e-01 1.06292999e+00</_>
    <_>
      9.81557012e-01 4.59522009e-01 2.38017988e+00</_>
    <_>
      9.81557012e-01 4.59522009e-01 3.38017988e+00</_>
    <_>
      9.81557012e-01 3.79521996e-01 2.38017988e+00</_>
    <_>
      9.81557012e-01 3.79521996e-01 3.38017988e+00</_>
    <_>
      9.81557012e-01 3.79521996e-01 1.38018000e+00</_>
    <_>
      3.15557986e-01 4.63747010e-02 1.73090005e+00</_>
    <_>
      3.15557986e-01 1.46374702e-01 1.73090005e+00</_>
    <_>
      3.15557986e-01 4.63747010e-02 1.53090000e+00</_>
    <_>
      3.15557986e-01 1.46374702e-01 1.53090000e+00</_>
    <_>
      2.66133994e-01 2.55441010e-01 1.10368001e+00</_>
    <_>
      2.61994004e-01 1.99849993e-01 1.07545996e+00</_>
    <_>
      2.61464000e-01 1.79849997e-01 1.14784002e+00</_>
    <_>
      7.08566010e-01 4.27148014e-01 2.40855002e+00</_>
    <_>
      7.08566010e-01 3.57147992e-01 2.40855002e+00</_>
    <_>
      7.08566010e-01 3.57147992e-01 1.40855002e+00</_></support_vectors>
  <decision_functions>
    <_>
      <sv_count>135</sv_count>
      <rho>-5.0894394803786791e-01</rho>
      <alpha>
        1. 1. 1. 1. 1. 1. 1. 1. 1. 6.1678667437247725e-01 1. 1. 1.
        1.1287158445691151e-01 1. 1. 1. 1. 1. 1. 1. 1. 1. 1. 1. 1. 1. 1.
        1. 1. 1. 1. 1. 1. 1. 1. 1. 1. 1. 9.6773281561872915e-01 1. 1. 1.
        1. 1. 1. 1. 1. 1. 1. 1. 1. 1. 1. 1. 1. 1. 1. 1. 1. 1.
        2.6730482693999458e-01 2.0791773040573633e-01
        3.2409997318021777e-01 1. 1. 2.5056663154297498e-01 1.
        4.7117007470131067e-01 -1. -1. -1. -5.6317930641951863e-01 -1.
        -1. -1. -1. -1. -1. -1. -1. -1. -1. -1. -1. -1. -1.
        -5.9053975215164800e-01 -1. -1. -1. -6.4731252647185544e-02 -1.
        -1. -1. -1. -1. -1. -1. -1. -1. -1. -1. -1. -1. -1. -1. -1. -1.
        -1. -1. -1. -1. -1. -1. -1. -1. -1. -1. -1. -1. -1. -1. -1. -1.
        -1. -1. -1. -1. -1. -1. -1. -1. -1. -1.</alpha>
      <index>
        218 68 67 333 336 63 62 61 221 219 330 53 52 108 203 406 292 276
        131 285 286 233 142 81 80 79 294 295 296 297 143 325 327 71 329
        19 18 17 15 421 422 423 424 425 408 172 173 174 175 176 435 436
        437 438 191 114 407 409 410 411 413 29 28 27 414 255 25 415 22
        238 247 246 239 248 240 214 189 190 194 195 199 200 202 216 229
        416 360 358 443 442 433 432 431 428 420 419 418 417 264 272 267
        266 265 274 262 257 254 252 341 331 326 323 284 282 275 21 164
        144 55 41 20 141 40 56 30 31 32 168 51 96 167 137 54 94 140</index></_>
    <_>
      <sv_count>85</sv_count>
      <rho>6.8316187740146139e-02</rho>
      <alpha>
        1. 1. 1. 1. 3.5204510628170421e-01 1. 1. 1.
        2.0576020262336181e-01 1. 1. 1. 1. 1. 1. 1. 1. 1. 1. 1. 1. 1. 1.
        3.2666394345976141e-01 1. 1. 1. 1. 1. 1. 1. 1. 1. 1. 1. 1. 1.
        5.4031786730502374e-01 7.1932893973439860e-01
        1.1723373855518294e-02 1. 5.3984922995689111e-01
        7.4501460681703202e-01 1. -1. -9.9447109294438107e-01 -1. -1.
        -1. -1. -1. -1. -1. -1. -1. -1. -1. -1. -1. -1. -1. -1. -1. -1.
        -1. -1. -1. -1. -1. -1. -1. -1. -1. -1. -1.
        -4.8702260818293056e-02 -4.6861415829021102e-01
        -9.2891575798080606e-01 -1. -1. -1. -1. -1. -1. -1.</alpha>
      <index>
        68 333 336 330 53 152 153 204 39 406 292 277 131 285 286 287 294
        295 296 297 325 327 329 18 16 15 14 408 435 436 437 438 407 409
        410 411 413 29 28 27 414 25 23 415 356 363 304 90 89 88 302 305
        306 307 315 316 317 332 334 335 4 11 10 9 8 6 5 3 439 440 441 2
        1 0 38 366 386 390 393 394 395 154 155 156 157</index></_>
    <_>
      <sv_count>33</sv_count>
      <rho>3.7777757455439775e-01</rho>
      <alpha>
        1.5409590969620832e-01 1. 1. 1. 1. 1. 1. 6.9164604414620667e-01
        1. 7.5898347374023223e-01 6.7403401792712703e-01
        7.9041989420516512e-01 9.1485883786906763e-01
        6.3678425918239401e-01 1. -1. -1. -3.6707706731972994e-01
        -8.8753707796110093e-01 -1. -1. -5.8261753305062136e-01 -1. -1.
        -1. -7.0164745912654924e-01 -4.2600615622786192e-01
        -3.1314755896962376e-01 -6.2181872084508161e-01
        -3.3982147589297285e-01 -3.1595783175916070e-01
        -3.4504995118613424e-01 -7.2014160442756403e-01</alpha>
      <index>
        61 108 296 143 71 17 114 407 409 29 28 27 255 25 115 103 309 391
        104 106 107 392 59 60 102 389 388 48 385 382 383 384 101</index></_>
    <_>
      <sv_count>116</sv_count>
      <rho>-5.7522760111044746e-01</rho>
      <alpha>
        1. 1. 1. 1. 1. 1. 1. 1. 1. 1. 1. 1. 1. 1. 5.1600286600779688e-01
        1. 1. 1. 1. 1. 1. 1. 1. 1. 1. 1. 1. 1. 1. 1. 1. 1. 1. 1. 1. 1.
        1. 1. 1. 1. 1. 1. 1. 1. 1. 1. 1. 1. 1. 1. 1.
        1.9981737202498828e-01 7.2969830218842180e-02 1.
        2.2432070543167890e-01 1. 2.4685276737690093e-01
        1.3572278596121062e-01 1. -1. -3.1340000458625566e-01
        -7.0225240987298276e-01 -1. -9.4477338907897479e-01 -1. -1. -1.
        -1. -1. -1. -1. -1. -1. -1. -1. -1. -1. -5.7509421945585038e-01
        -1. -1. -1. -1. -1. -1. -1. -1. -1. -1. -1. -1. -1. -1. -1. -1.
        -1. -1. -1. -1. -1. -1. -1. -1. -1. -1. -3.7765144565721631e-01
        -1. -1. -1. -1. -1. -1. -1. -1. -1. -4.8251485837013774e-01 -1.</alpha>
      <index>
        333 336 221 219 330 108 206 203 406 292 133 276 131 286 233 142
        81 80 79 294 295 296 297 143 325 327 71 329 192 17 421 422 423
        424 425 408 172 173 174 175 435 436 437 438 191 407 409 410 411
        412 413 29 28 414 25 115 24 23 415 376 47 225 232 136 220 235
        234 178 165 197 196 179 187 185 184 182 181 151 224 148 149 150
        217 211 210 209 205 312 314 180 256 322 324 74 73 72 328 82 84
        83 70 78 77 76 300 132 128 129 130 135 69 113 121 347 350 122</index></_>
    <_>
      <sv_count>147</sv_count>
      <rho>3.0854693343303791e-01</rho>
      <alpha>
        1. 6.4325239299823839e-02 1. 1.0918957901623411e-01
        6.2733442807979001e-01 1. 1. 1. 1. 1. 1. 1. 1. 1. 1. 1. 1. 1. 1.
        1. 1. 1. 1. 1. 7.1978052837216777e-01 1. 1. 1.
        6.2483159195539373e-01 5.3344077262804324e-02 1. 1. 1. 1. 1. 1.
        1. 1. 1. 1. 1. 1. 1. 1. 1. 1. 1. 1. 1. 1. 1. 1. 1. 1. 1. 1. 1.
        1. 1. 1. 1. 1. 1. 1. 1. 1. 1. 1. 1. 1. 1. 1.
        8.2466662140713298e-03 1. 1. -1. -1. -1. -1. -1. -1. -1. -1. -1.
        -1. -1. -1. -1. -1. -1. -1. -1. -1. -1. -1. -1. -1. -1. -1. -1.
        -1. -1. -1. -1. -1. -1. -1. -1. -1. -1. -1. -1. -1. -1. -1. -1.
        -1. -1. -1. -1. -1. -1. -7.2597911988354014e-01 -1. -1. -1. -1.
        -6.7397677977010839e-01 -1. -1. -1. -1. -7.9185198052688766e-01
        -1. -1. -1. -1. -1. -1. -1. -9.0868582454432256e-01 -1.
        -1.0655840547542605e-01 -1. -1. -1. -1.</alpha>
      <index>
        248 240 405 404 403 402 416 381 380 360 358 352 351 349 348 428
        427 426 420 419 418 417 273 272 270 269 268 267 265 274 257 290
        346 344 341 331 326 323 310 291 289 288 284 283 282 281 279 275
        164 163 160 159 158 55 41 141 40 56 32 168 99 98 51 171 170 169
        97 96 167 95 137 138 54 94 139 93 361 343 353 354 355 356 363
        357 311 304 92 91 90 89 88 302 303 305 306 307 308 342 313 315
        316 317 318 319 320 321 332 334 335 339 11 10 9 8 7 6 3 439 440
        441 2 1 0 38 366 367 369 390 393 394 395 396 397 398 364 37 36
        35 34 33 26 13 12 154 155 156 157</index></_>
    <_>
      <sv_count>44</sv_count>
      <rho>6.3226691801908563e-01</rho>
      <alpha>
        1. 1. 1. 7.4791659511825348e-01 1. 1. 1. 1. 1.
        4.7474442933470840e-01 3.2274303191154052e-01
        9.4055242826382157e-01 1. 1. 1. 1. 1. 1.2356053100516332e-01 1.
        1. -1. -1. -9.3668955020334210e-01 -1. -1. -1. -1.
        -2.7297818109309563e-01 -1. -1. -1. -1. -8.0920215162617937e-01
        -1. -1. -1. -3.6742230507648438e-01 -1.5321100066637222e-01
        -6.3436649253273691e-02 -3.6776283980847690e-01
        -2.0220927847539633e-01 -2.3432103003343446e-01
        -2.0228402939743173e-01 -1.</alpha>
      <index>
        238 246 399 405 401 400 430 433 432 431 283 21 45 20 118 119 120
        146 147 99 103 309 391 104 105 106 107 392 57 58 46 59 60 66 65
        102 389 388 48 385 382 383 384 101</index></_>
    <_>
      <sv_count>200</sv_count>
      <rho>-3.2778225606307387e-01</rho>
      <alpha>
        1. 1. 1. 1. 1. 1. 1. 1. 1. 1. 1. 1. 1. 1. 1. 1. 1. 1. 1. 1. 1.
        1. 1. 1. 1. 1. 1. 1. 1. 1. 1. 1. 1. 1. 1. 1. 1. 1. 1. 1. 1. 1.
        1. 1. 1. 1. 1. 1. 1. 1. 1. 1. 1. 1. 1. 1. 1. 1. 1. 1. 1. 1. 1.
        1. 1. 1. 1. 1. 1. 1. 1. 1. 1. 1. 1. 1. 1. 1. 1. 1. 1. 1. 1. 1.
        1. 1. 1. 1. 1. 1. 1. 1. 1. 1. 1. 1. 1. 1. 1. 1. -1. -1. -1. -1.
        -1. -1. -1. -1. -1. -1. -1. -1. -1. -1. -1. -1. -1. -1. -1. -1.
        -1. -1. -1. -1. -1. -1. -1. -1. -1. -1. -1. -1. -1. -1. -1. -1.
        -1. -1. -1. -1. -1. -1. -1. -1. -1. -1. -1. -1. -1. -1. -1. -1.
        -1. -1. -1. -1. -1. -1. -1. -1. -1. -1. -1. -1. -1. -1. -1. -1.
        -1. -1. -1. -1. -1. -1. -1. -1. -1. -1. -1. -1. -1. -1. -1. -1.
        -1. -1. -1. -1. -1. -1. -1. -1. -1. -1. -1. -1. -1. -1. -1. -1.</alpha>
      <index>
        238 188 250 249 247 242 239 243 245 241 244 214 215 189 190 194
        195 200 201 202 213 237 216 227 228 229 230 231 236 399 401 400
        416 380 360 358 352 351 349 430 444 443 442 434 433 432 431 348
        429 428 427 426 420 419 418 417 264 273 272 270 269 268 266 260
        259 254 251 290 346 344 341 331 326 323 310 289 288 283 279 164
        163 144 55 45 41 40 56 118 119 120 146 147 99 170 169 96 167 137
        54 94 379 375 378 377 376 44 47 49 225 226 145 232 136 235 234
        178 162 165 166 198 197 193 177 179 187 186 184 183 182 181 151
        224 223 222 368 148 149 217 212 211 209 208 207 161 258 263 312
        109 314 261 256 322 75 324 74 72 328 278 271 100 87 86 85 84 70
        293 78 76 298 299 301 132 125 126 359 127 128 362 129 130 365
        134 280 135 371 373 69 113 116 253 337 338 117 340 121 345 347
        350 122 123</index></_>
    <_>
      <sv_count>31</sv_count>
      <rho>3.0930073646940792e-01</rho>
      <alpha>
        1. 6.2613268334950412e-01 1.7500791019409700e-01 1.
        8.7115792058849117e-01 7.4349242434305285e-01 1.
        7.9108012253971183e-01 1.6314291875287021e-01 1.
        9.9424944641197299e-01 9.6424859076510161e-02 1. 1. -1.
        -7.8810473966890371e-01 -1. -1. -1. -1. -6.0589190499195222e-01
        -6.6267816769270926e-01 -1.1825309722758505e-01
        -6.9314575448391924e-01 -2.4786783833086701e-01
        -4.4605095438229470e-01 -6.9199615607146436e-01
        -3.7634323482418353e-01 -4.1676286206100338e-01
        -3.8174544453226289e-01 -3.1848130989064818e-02</alpha>
      <index>
        93 88 303 305 306 307 313 11 1 0 386 387 390 37 309 391 104 105
        106 107 392 59 66 389 388 48 385 382 383 384 101</index></_>
    <_>
      <sv_count>118</sv_count>
      <rho>-5.8580939367370000e-01</rho>
      <alpha>
        1. 1. 1. 1. 1. 1. 1. 1. 1. 1. 1. 1. 1. 1. 1. 1. 1. 1. 1. 1. 1.
        1. 1. 1. 1. 1. 1. 1. 1. 1. 1. 1. 1. 1. 1. 1. 1. 1. 1.
        1.8390737957209702e-01 1. 4.0333544146128381e-01 1. 1. 1. 1.
        3.9196723414649676e-01 1. 1. 1. 1. 1. 5.7491574008182189e-01 1.
        1. 1. 1. 1. 1. -1. -1. -1. -2.4608862719416424e-01 -1. -1.
        -8.1575411220280267e-02 -1. -1. -1. -1. -1. -1. -1. -1. -1. -1.
        -8.4219417233867777e-01 -1. -1. -1. -1. -1. -1. -1. -1. -1. -1.
        -1. -1. -1. -1. -4.8963319286939855e-01 -1. -1. -1. -1. -1. -1.
        -1. -1. -1. -1. -1. -1. -1. -1. -1. -1. -1. -1. -1.
        -8.9463439163917891e-01 -1. -1. -1. -1. -1. -1.</alpha>
      <index>
        93 361 343 353 354 355 356 363 357 311 304 92 91 90 89 88 302
        303 306 308 342 313 315 316 317 318 319 320 321 332 334 335 339
        10 8 6 439 440 441 2 1 0 38 366 367 369 390 393 394 395 396 397
        398 364 34 33 155 156 157 375 377 376 47 136 235 234 165 166 187
        186 184 183 151 368 148 149 150 263 312 314 322 324 328 82 278
        271 87 86 85 84 83 70 293 78 77 76 298 299 300 301 132 359 128
        362 129 130 365 134 280 135 370 371 372 340 374 345 347 350</index></_>
    <_>
      <sv_count>42</sv_count>
      <rho>-7.1654422283698205e-01</rho>
      <alpha>
        1. 1. 2.4246417886330518e-01 1. 1. 1. 2.5659211786249991e-01 1.
        1. 1. 5.4042695995209000e-01 7.5055743746066661e-01 1. 1. 1.
        2.8400984627702308e-01 1.7505078513549488e-01
        7.5006356238030625e-01 2.2934317207909524e-01
        2.8315964781144726e-01 1.5769418880405905e-01
        1.0537216458993427e-01 1.5406594124274853e-01 1. -1. -1. -1. -1.
        -1. -7.2239444559875010e-01 -1. -1. -1. -1.0772175538707790e-01
        -1. -8.4914037155010802e-01 -1. -1. -1. -1. -1.
        -2.4954342992273437e-01</alpha>
      <index>
        103 309 391 104 105 106 392 57 58 46 59 60 65 64 102 389 388 50
        48 385 382 383 384 101 376 44 43 42 47 235 109 110 111 112 87
        293 127 124 113 116 117 122</index></_></decision_functions></opencv_ml_svm>
</opencv_storage>
